{
    "layerSizes": [
        9,
        10,
        10,
        5
    ],
    "weights": [
        -0.0161376241594553,
        -0.11744081228971482,
        -0.03728567808866501,
        0.07173077017068863,
        0.11333053559064865,
        -0.3459773361682892,
        0.23530089855194093,
        -0.02944721281528473,
        0.15580326318740846,
        0.24991841614246369,
        -0.06935590505599976,
        -0.01209884975105524,
        0.21615715324878694,
        -0.09454591572284699,
        -0.38947734236717226,
        -0.025875894352793695,
        -0.16592180728912354,
        -0.1370541751384735,
        -0.054452892392873767,
        -0.14072532951831819,
        0.12587855756282807,
        -0.15806761384010316,
        -0.10307164490222931,
        0.10710588842630387,
        -0.193430557847023,
        0.046270936727523807,
        0.04712124168872833,
        -0.23487405478954316,
        -0.020190922543406488,
        0.2546696364879608,
        0.28621020913124087,
        -0.02652607671916485,
        -0.07372861355543137,
        0.1400490552186966,
        -0.07893621176481247,
        0.27463486790657046,
        -0.04876447841525078,
        0.21267695724964143,
        -0.35102614760398867,
        -0.05411522835493088,
        -0.10198408365249634,
        0.06788194924592972,
        0.11066052317619324,
        -0.14310809969902039,
        -0.3085542917251587,
        0.3582983911037445,
        -0.02200664021074772,
        0.014482605271041394,
        -0.06851532310247421,
        -0.038676343858242038,
        0.08094091713428498,
        -0.0905114933848381,
        0.24959811568260194,
        -0.10161348432302475,
        -0.2816469073295593,
        0.04568580538034439,
        0.0783151164650917,
        -0.225722074508667,
        -0.08524996787309647,
        -0.05696212127804756,
        -0.20257140696048737,
        -0.1822761446237564,
        0.48610934615135195,
        0.17834222316741944,
        0.008896373212337494,
        0.037012360990047458,
        -0.1624280959367752,
        -0.2505939304828644,
        0.18174760043621064,
        0.11272843182086945,
        -0.04239043593406677,
        -0.1460258960723877,
        -0.2353449910879135,
        0.09324521571397782,
        -0.244063138961792,
        -0.11738017201423645,
        0.1990634799003601,
        0.16533873975276948,
        -0.18021655082702638,
        -0.23288436233997346,
        -0.024879246950149537,
        0.1544485241174698,
        0.297010213136673,
        0.2227904200553894,
        -0.09379822760820389,
        -0.007045445032417774,
        -0.1124529093503952,
        -0.08161605894565582,
        0.38274675607681277,
        -0.2384921908378601,
        -0.1077839583158493,
        -0.17625491321086884,
        0.23829175531864167,
        -0.035689812153577808,
        -0.10305100679397583,
        0.05691664293408394,
        0.17286188900470735,
        -0.07575462758541107,
        -0.08400449901819229,
        -0.08313558250665665,
        -0.1991773247718811,
        -0.07611504197120667,
        0.3076995611190796,
        -0.13814684748649598,
        -0.2952047884464264,
        -0.12516917288303376,
        0.14446181058883668,
        -0.2767452895641327,
        -0.11928754299879074,
        -0.2771183252334595,
        0.2442927211523056,
        0.0662737712264061,
        0.05300445482134819,
        -0.1675339937210083,
        0.16935384273529054,
        0.2810669541358948,
        -0.21620135009288789,
        -0.3271244466304779,
        0.27075493335723879,
        0.15421094000339509,
        0.2380143254995346,
        -0.34534820914268496,
        0.20278409123420716,
        -0.09592586010694504,
        0.2223903238773346,
        0.18198072910308839,
        0.1951354742050171,
        -0.268789142370224,
        0.08819735795259476,
        -0.07865201681852341,
        0.36745062470436098,
        -0.11582516878843308,
        -0.047762688249349597,
        0.36180710792541506,
        -0.06527802348136902,
        -0.2506592869758606,
        0.07953526079654694,
        -0.10567699372768402,
        -0.009563214145600796,
        0.27530568838119509,
        -0.31656166911125185,
        0.33110255002975466,
        -0.09275475889444351,
        0.29082661867141726,
        0.07687678933143616,
        -0.10105064511299133,
        -0.23761147260665894,
        -0.30480584502220156,
        0.25144535303115847,
        -0.032500412315130237,
        -0.24775438010692597,
        -0.38159576058387759,
        -0.09598660469055176,
        -0.07283412665128708,
        0.21400777995586396,
        0.015618342906236649,
        -0.017834771424531938,
        0.04873708635568619,
        0.04344204068183899,
        -0.23204615712165833,
        -0.19777412712574006,
        0.08332748711109162,
        0.05610113590955734,
        0.008795575238764286,
        0.14433348178863526,
        -0.023739062249660493,
        -0.3633612394332886,
        -0.05847543850541115,
        -0.4117151200771332,
        -0.05451812595129013,
        0.1716758906841278,
        0.3184618055820465,
        -0.11762404441833496,
        -0.012286512181162835,
        -0.015076467767357827,
        0.12374191731214524,
        -0.22446085512638093,
        -0.10772474110126496,
        0.17082937061786652,
        0.2705962657928467,
        -0.13434739410877229,
        0.11580389738082886,
        0.23151102662086488,
        0.058647576719522479,
        0.0072160689160227779,
        -0.019245443865656854,
        -0.08042965084314347,
        -0.12243378907442093,
        -0.05296304076910019,
        0.2190151810646057,
        -0.0772031843662262,
        -0.28240787982940676,
        -0.19162270426750184,
        -0.0640946701169014,
        0.05501975491642952,
        -0.0924745425581932,
        -0.11266698688268662,
        0.19115224480628968,
        -0.10290268808603287,
        0.267758309841156,
        0.26492881774902346,
        -0.16356606781482697,
        -0.18013978004455567,
        -0.019482692703604699,
        0.07839571684598923,
        -0.09689389169216156,
        -0.30740323662757876,
        -0.06675839424133301,
        -0.2354893833398819,
        -0.04735766351222992,
        -0.013622459024190903,
        0.0888206884264946,
        0.2102595418691635,
        -0.10925999283790589,
        -0.31457316875457766,
        -0.09193629771471024,
        0.1254032701253891,
        -0.2834532856941223,
        -0.034267161041498187,
        -0.3098580241203308,
        -0.28312525153160097,
        -0.012205256149172783,
        -0.019498154520988466,
        0.13190270960330964,
        0.0008119638077914715,
        0.15609925985336305,
        0.1478475034236908,
        0.010677582584321499,
        -0.03293497860431671,
        -0.06490970402956009,
        -0.0032632891088724138,
        0.3752524256706238,
        -0.020138824358582498,
        0.10514290630817414,
        0.08555515855550766,
        -0.021773017942905427,
        -0.051774583756923679,
        -0.03180188313126564,
        0.04188447445631027,
        -0.038305237889289859
    ],
    "biases": [
        -0.2714320123195648,
        -0.2166508138179779,
        -0.046867094933986667,
        -0.22005626559257508,
        0.16403532028198243,
        -0.24794602394104005,
        0.22555182874202729,
        -0.14213483035564423,
        0.017896059900522233,
        0.037375327199697497,
        0.01850936934351921,
        0.13356134295463563,
        -0.01181818637996912,
        0.031479235738515857,
        -0.15817435085773469,
        0.04139956086874008,
        -0.04953116178512573,
        -0.2440611869096756,
        -0.0045732599683105949,
        0.11140906065702439,
        0.12467323988676071,
        0.027750136330723764,
        0.23215807974338532,
        -0.050480492413043979,
        -0.3650098443031311
    ]
}