{
    "layerSizes": [
        15,
        10,
        5
    ],
    "weights": [
        0.224625825881958,
        -0.023279981687664987,
        0.3598542809486389,
        -0.2483571618795395,
        -0.2259489893913269,
        -0.10412493348121643,
        -0.35119083523750307,
        -0.13368433713912965,
        0.4354065954685211,
        -0.11950573325157166,
        -0.0050294422544538979,
        0.10241169482469559,
        -0.14878901839256288,
        -0.3020366132259369,
        -0.047642532736063007,
        0.38191884756088259,
        0.08547617495059967,
        0.4403906464576721,
        -0.3836623430252075,
        -0.07877117395401001,
        -0.11867185682058335,
        0.13988696038722993,
        -0.3785358965396881,
        0.06396352499723435,
        -0.04098159074783325,
        0.12227582186460495,
        0.26005879044532778,
        -0.15502017736434937,
        0.18400265276432038,
        -0.222220778465271,
        -0.051418792456388476,
        0.09136145561933518,
        0.05769237130880356,
        -0.23658712208271027,
        -0.0597454272210598,
        -0.0027024501468986274,
        0.17192991077899934,
        -0.3775050640106201,
        -0.24408043920993806,
        -0.011054747737944126,
        0.2822597920894623,
        0.05164049193263054,
        0.16069616377353669,
        -0.1085180938243866,
        -0.0934603214263916,
        0.02873966470360756,
        -0.011924881488084793,
        0.07785964012145996,
        -0.26508331298828127,
        -0.23947106301784516,
        -0.11964382231235504,
        0.2511098086833954,
        0.24032382667064668,
        -0.04746531322598457,
        0.3227035701274872,
        -0.04858899861574173,
        -0.09305129945278168,
        0.07113157957792282,
        0.1889904886484146,
        0.1554758995771408,
        0.14356863498687745,
        -0.2293018400669098,
        -0.09259891510009766,
        0.17743130028247834,
        -0.06512998044490814,
        0.2892369031906128,
        0.17664627730846406,
        0.0406864657998085,
        -0.2518653869628906,
        0.2104228138923645,
        0.053755734115839007,
        -0.05318508669734001,
        -0.03347770497202873,
        0.07128779590129852,
        0.024267710745334626,
        -0.23407991230487824,
        -0.2583036720752716,
        0.17518813908100129,
        0.07398401200771332,
        -0.24643048644065858,
        -0.16282692551612855,
        0.06984354555606842,
        -0.09884000569581986,
        -0.02344418317079544,
        0.2844797670841217,
        0.25344517827033999,
        -0.1616077870130539,
        -0.1140359416604042,
        -0.14103195071220399,
        0.04099122807383537,
        0.18693910539150239,
        -0.13092966377735139,
        -0.333657830953598,
        -0.2045278400182724,
        0.0698879063129425,
        0.010147228837013245,
        0.2386511117219925,
        0.13751386106014253,
        -0.28538137674331667,
        -0.059966497123241428,
        0.19994045794010163,
        0.05421558767557144,
        -0.05341271683573723,
        -0.11532197147607804,
        -0.20145857334136964,
        -0.08417242020368576,
        0.2187991887331009,
        -0.22156618535518647,
        0.09885704517364502,
        -0.18866346776485444,
        -0.062001898884773257,
        -0.18545152246952058,
        -0.0032404689118266107,
        -0.3064975142478943,
        -0.09022913128137589,
        0.34732380509376528,
        -0.2766692340373993,
        0.21952326595783235,
        -0.22264422476291657,
        -0.31708359718322756,
        -0.16586428880691529,
        0.34996673464775088,
        -0.28805142641067507,
        -0.010687069967389107,
        0.19652162492275239,
        -0.021758804097771646,
        -0.3353804051876068,
        0.3563884198665619,
        -0.21496683359146119,
        0.09534546732902527,
        -0.1523105353116989,
        0.017161821946501733,
        0.07559183984994888,
        -0.1742674708366394,
        -0.31251031160354617,
        0.4391946494579315,
        -0.22916793823242188,
        -0.1627989113330841,
        0.03123738430440426,
        -0.1258040815591812,
        0.08056584000587464,
        -0.09973698109388352,
        0.09041878581047058,
        -0.10677175968885422,
        0.01004723273217678,
        0.11331132054328919,
        0.0034565175883471967,
        0.18409687280654908,
        0.008279893547296524,
        -0.04103296250104904,
        -0.008659355342388153,
        -0.08145499229431153,
        -0.20485225319862367,
        0.3852361738681793,
        0.1114603653550148,
        -0.20039346814155579,
        0.11037670075893402,
        0.07639923691749573,
        0.185439333319664,
        -0.3692341148853302,
        0.08245564997196198,
        -0.06751584261655808,
        0.09324044734239578,
        -0.0003929237718693912,
        -0.1396758258342743,
        0.21723778545856477,
        -0.030174821615219117,
        0.0020755950827151539,
        0.13912329077720643,
        -0.06742267310619354,
        0.16491222381591798,
        -0.29605841636657717,
        -0.12757395207881928,
        -0.1641637086868286,
        0.0010884320363402367,
        -0.28947117924690249,
        0.059616658836603168,
        -0.2681340277194977,
        0.11726632714271546,
        -0.2970099151134491,
        0.20013371109962464,
        0.13564687967300416,
        0.17837592959403993,
        0.08873271197080612,
        -0.2732178568840027,
        0.15989382565021516,
        0.32295650243759158,
        -0.07595312595367432,
        -0.16864502429962159,
        0.23575739562511445,
        -0.11213885247707367,
        -0.32901856303215029,
        0.3354911506175995,
        -0.35520896315574648,
        -0.046310905367136,
        -0.24592863023281098,
        0.06704195588827133,
        -0.1417955607175827,
        0.024682290852069856,
        -0.12095482647418976
    ],
    "biases": [
        -0.16763164103031159,
        -0.13435734808444978,
        0.09755786508321762,
        0.0337693952023983,
        -0.1418083757162094,
        0.03419199958443642,
        0.09064038842916489,
        0.15437820553779603,
        -0.03946506604552269,
        0.07657601684331894,
        0.15464679896831513,
        0.23870788514614106,
        0.3187936544418335,
        0.1602306067943573,
        -0.02665415033698082
    ]
}