{
    "layerSizes": [
        15,
        10,
        5
    ],
    "weights": [
        -0.1350526660680771,
        0.2689247727394104,
        -0.11493873596191406,
        0.207667738199234,
        0.3037504553794861,
        -0.02612455002963543,
        0.12586694955825807,
        -0.08021330088376999,
        -0.0269112940877676,
        -0.11083000898361206,
        0.10199562460184097,
        0.23464620113372804,
        0.08896589279174805,
        0.035283394157886508,
        -0.12545347213745118,
        0.043358564376831058,
        -0.17016197741031648,
        -0.0780438631772995,
        0.060612957924604419,
        0.038062650710344318,
        0.13865149021148683,
        0.0681014358997345,
        -0.3415663540363312,
        -0.16170290112495423,
        0.41547781229019167,
        0.1969176083803177,
        -0.05812198668718338,
        -0.24094553291797639,
        -0.235187366604805,
        -0.05166151002049446,
        -0.22273722290992738,
        0.07076936215162277,
        -0.011801457963883877,
        0.2850726842880249,
        -0.15249675512313844,
        0.07709360122680664,
        -0.01750536635518074,
        -0.26482850313186648,
        0.3538357615470886,
        -0.006263200659304857,
        -0.08272438496351242,
        0.0873558521270752,
        0.000043186770199099556,
        -0.01878276839852333,
        -0.24761205911636353,
        -0.0825229063630104,
        -0.10305975377559662,
        -0.13414239883422852,
        -0.20399387180805207,
        -0.017454072833061219,
        -0.06966149806976319,
        0.35981485247612,
        -0.018038835376501085,
        0.10778145492076874,
        -0.10281668603420258,
        -0.14567425847053529,
        0.0301068052649498,
        -0.18837179243564607,
        0.0729198083281517,
        -0.2785091996192932,
        0.11325462907552719,
        -0.27291780710220339,
        0.22378714382648469,
        -0.13940976560115815,
        -0.32435542345046999,
        0.19156783819198609,
        0.1406213939189911,
        0.30860036611557009,
        0.08912517875432968,
        0.049878742545843127,
        0.28630566596984866,
        0.2797618806362152,
        0.12895867228507996,
        -0.10820464789867401,
        -0.27552250027656557,
        -0.07220988720655441,
        -0.17047220468521119,
        -0.058044761419296268,
        0.08451198786497116,
        -0.18066644668579102,
        0.27481573820114138,
        -0.12022341787815094,
        0.22744151949882508,
        0.10280734300613404,
        -0.12148362398147583,
        0.3291957378387451,
        0.16297850012779237,
        0.23527617752552033,
        0.33889010548591616,
        0.13649168610572816,
        0.12183752655982971,
        -0.15256519615650178,
        -0.06986062228679657,
        -0.20019041001796723,
        -0.055090874433517459,
        0.39369770884513857,
        -0.09471963346004486,
        0.29683196544647219,
        0.13424013555049897,
        -0.18904151022434236,
        -0.10593735426664353,
        0.23064790666103364,
        0.020094824954867364,
        0.06018351390957832,
        -0.05282263830304146,
        0.22601115703582765,
        0.34620359539985659,
        0.3720835745334625,
        -0.21538357436656953,
        0.01984957419335842,
        -0.14074917137622834,
        -0.08458586037158966,
        0.01798902079463005,
        -0.20171894133090974,
        -0.15129640698432923,
        -0.020866703242063524,
        0.1712612807750702,
        0.053831350058317187,
        0.12298741191625595,
        0.17638839781284333,
        0.18651041388511659,
        -0.04905645549297333,
        -0.01554049737751484,
        0.08632674068212509,
        -0.06201138347387314,
        -0.17138394713401795,
        -0.17681320011615754,
        -0.06330796331167221,
        0.079718217253685,
        -0.2911723554134369,
        0.1252150982618332,
        0.09522325545549393,
        -0.3136802613735199,
        0.1942240297794342,
        0.13296601176261903,
        -0.018739743158221246,
        -0.02894432470202446,
        -0.24637451767921449,
        0.12157204002141953,
        -0.024309590458869935,
        0.1500921994447708,
        0.04445325583219528,
        -0.2510393261909485,
        0.05873304232954979,
        0.06107458844780922,
        0.029300080612301828,
        0.17467491328716279,
        -0.003628113539889455,
        0.06494436413049698,
        -0.11354158818721771,
        0.0900149941444397,
        0.15730951726436616,
        -0.0006634850287809968,
        0.052408616989851,
        -0.159445658326149,
        0.35500046610832217,
        -0.017771584913134576,
        -0.0035359696485102178,
        -0.20232923328876496,
        -0.025544408708810808,
        -0.13089700043201447,
        -0.07812675088644028,
        -0.1638239622116089,
        -0.1209862157702446,
        0.1307142674922943,
        0.10327524691820145,
        0.011103940196335316,
        0.29398390650749209,
        -0.2488894760608673,
        -0.2804972231388092,
        0.22025159001350404,
        -0.11158709973096848,
        -0.07876873016357422,
        -0.07553332298994065,
        -0.43193742632865908,
        0.23545238375663758,
        0.037604205310344699,
        0.09673501551151276,
        0.5215430855751038,
        0.22130244970321656,
        -0.05190352723002434,
        -0.1353468894958496,
        -0.0217619389295578,
        -0.1245558112859726,
        0.30078089237213137,
        -0.2743695080280304,
        -0.0918196439743042,
        0.13653406500816346,
        -0.028604624792933465,
        -0.22677643597126008,
        -0.043828073889017108,
        0.06692300736904144,
        0.1423180252313614,
        -0.09057272225618363,
        -0.2090105265378952,
        0.09101595729589462,
        0.0249475110322237,
        0.08744755387306214,
        0.18098026514053346,
        -0.05387050285935402
    ],
    "biases": [
        -0.3604840636253357,
        0.13745956122875215,
        -0.06826949119567871,
        0.5014094114303589,
        0.12307816743850708,
        -0.06856875866651535,
        -0.4174264967441559,
        0.11420706659555435,
        0.12215305864810944,
        0.19865520298480988,
        -0.24863378703594209,
        -0.2282756119966507,
        0.12337398529052735,
        0.047036051750183108,
        0.07972050458192826
    ]
}